{
  "generatedAt": "2026-04-19T12:38:00.004Z",
  "profiles": [
    {
      "profile": "generic",
      "labels": [
        "Crit Chance",
        "Crit Dmg",
        "Defense",
        "Health",
        "Offense",
        "Potency",
        "Speed",
        "Tenacity"
      ],
      "weights": [
        [
          -0.5458521963991662,
          0.15803833595220998,
          -0.07915980820539298,
          0.3586595656374682,
          -0.14827882792147404,
          -0.3683137236371832,
          -0.03914185368448255,
          0.2672167639268891,
          -0.6199199383922854,
          -0.2361509068638084,
          0.22629292290841477,
          0.2543205526468125,
          -0.24259670916565418,
          0.2898473129265815,
          -0.04946710855512818,
          -0.33680799214975327,
          -0.3887826341368696,
          -0.03987197727380082,
          -0.1174552569956186,
          0.2527003395708224,
          -0.13449095974042652,
          -0.02632446957233162,
          0.119033839472861,
          -0.4419547364918265,
          -0.1174552569956186,
          -0.1174552569956186,
          0.2527003395708224,
          0.2527003395708224,
          -0.027311143843005967,
          -0.11147788539435606,
          0.2898473129265815,
          -0.3887826341368696
        ],
        [
          0.23326665823311268,
          -0.2947598566732348,
          0.4458728763529406,
          -0.1715836688372234,
          0.139602106064311,
          0.18713363733859836,
          -0.15587526513611105,
          0.13380267449309943,
          0.23055305859155875,
          0.42480735227155525,
          -0.27616573688800955,
          -0.49721657748310183,
          0.2910587955282545,
          0.5449919644428542,
          0.7200940020896408,
          0.1806691200735054,
          0.5283390167211844,
          -0.09979784491156975,
          0.08491778519528567,
          0.1267961468417133,
          -0.20934921193034647,
          -0.02042345309129044,
          0.07285088055272769,
          0.1965732880665128,
          0.08491778519528567,
          0.08491778519528567,
          0.1267961468417133,
          0.1267961468417133,
          0.07511162798783155,
          0.00005957512918747075,
          0.5449919644428542,
          0.5283390167211844
        ],
        [
          0.12108617411540834,
          0.24314251058588637,
          -0.17323320261686687,
          -0.2873953332216177,
          0.2753257595391669,
          0.12510399856489737,
          -0.13901563430538375,
          -0.4186975415990938,
          0.09795827254646135,
          -0.13213236293794756,
          0.3227943318252726,
          -0.9228039082961061,
          -0.7114968612880644,
          -0.2180135001191455,
          -0.12804365402210466,
          -0.3071619892909716,
          -0.24741162136835196,
          -0.3840967761110789,
          0.06359669789713757,
          -0.45106565915453617,
          -0.07181480028220324,
          -0.006556036272219662,
          -0.054318456956843314,
          0.23663602127459799,
          0.06359669789713757,
          0.06359669789713757,
          -0.45106565915453617,
          -0.45106565915453617,
          -0.038015771121856126,
          0.12329232155640847,
          -0.2180135001191455,
          -0.24741162136835196
        ],
        [
          0.25511304326126377,
          0.0035895624201747337,
          -0.11531916740921161,
          -0.1944585495254037,
          -0.04856988909483582,
          0.27322927356329413,
          -0.4861227958439334,
          -0.1040040537130285,
          0.5002205291648378,
          0.34418564255228284,
          -0.0120538462425176,
          0.834995755528037,
          0.5398730844053239,
          -0.15742372331504356,
          -0.09573194431621816,
          -0.18309397033416297,
          -0.24071626770482205,
          0.7316267706250881,
          0.024970571741028014,
          -0.3568379549000432,
          -0.04509641082058711,
          -0.004324740007125129,
          -0.13189841094340485,
          0.08238362989903865,
          0.024970571741028014,
          0.024970571741028014,
          -0.3568379549000432,
          -0.3568379549000432,
          0.018585134605223923,
          0.03922081220671966,
          -0.15742372331504356,
          -0.24071626770482205
        ],
        [
          0.21793794042393055,
          0.20766507613174956,
          0.40019413795493447,
          0.42016770335607173,
          0.17884878933344092,
          0.18785247226459734,
          0.5016020871486839,
          0.3543596465197324,
          -0.09066474220494815,
          0.36328062562232794,
          0.22712786516152367,
          -0.29682826191530276,
          0.19933378645490446,
          -0.3625329674776231,
          -0.2737488191268579,
          0.09344835570236533,
          -0.34079556047181586,
          -0.07980903612744683,
          0.3177810133402431,
          0.2910976682439665,
          0.0072225188681364575,
          -0.019989618667307866,
          0.054798289992460884,
          -0.053172755614195315,
          0.3177810133402431,
          0.3177810133402431,
          0.2910976682439665,
          0.2910976682439665,
          0.15107706256249961,
          0.16559631968089494,
          -0.3625329674776231,
          -0.34079556047181586
        ],
        [
          -0.13457876567229718,
          -0.4340755890625709,
          -0.2176437529266869,
          -0.18820676522748236,
          -0.33353347096695624,
          -0.23829206442751735,
          0.16093275042567126,
          -0.2015099688344281,
          -0.17839595894307317,
          0.00020788143844456322,
          -0.4236502659179028,
          -0.08156132602490992,
          -0.024426036830165573,
          0.0851092257232174,
          -0.019002627072016626,
          -0.02224704627215565,
          0.09440278125345038,
          -0.010776979063540349,
          -0.31787924779959803,
          -0.18665079324412182,
          0.286933813133951,
          -0.0017071393970512054,
          0.0019895629584714284,
          -0.0485813972201492,
          -0.31787924779959803,
          -0.31787924779959803,
          -0.18665079324412182,
          -0.18665079324412182,
          0.01867593631100455,
          0.046546281713932505,
          0.0851092257232174,
          0.09440278125345038
        ],
        [
          0.029790389575415903,
          0.01413319504469934,
          0.07897363934455172,
          0.4438631329427642,
          -0.011945900646844707,
          -0.2229267874471391,
          0.5648128163317093,
          0.3835230797870476,
          -0.0613486826459766,
          -0.6008387851814192,
          -0.07955749011366609,
          0.18093869925617737,
          0.17190785936777808,
          0.12930518694823528,
          -0.09080889740735516,
          0.7169399465980043,
          0.2296778961604916,
          -0.01584607637736697,
          0.06755953372450704,
          -0.12438713381265351,
          0.16362273730585358,
          0.08588474277225398,
          0.031346876169300084,
          -0.2762535419690746,
          0.06755953372450704,
          0.06755953372450704,
          -0.12438713381265351,
          -0.12438713381265351,
          -0.025991935628949966,
          0.011661876495866882,
          0.12930518694823528,
          0.2296778961604916
        ],
        [
          -0.17676324353766876,
          0.10226676560108539,
          -0.33968472249426807,
          -0.38104608512457594,
          -0.05144856630680791,
          0.05621319378045224,
          -0.40719210493615393,
          -0.4146906005802184,
          0.12159746188342603,
          -0.16335944690143486,
          0.015212219266885325,
          0.5281550662883929,
          -0.22365391847237626,
          -0.31128349912907566,
          -0.0632909515899604,
          -0.14174642432683093,
          0.365286389546734,
          -0.10142808076028481,
          -0.12349109710298474,
          0.44834738645485234,
          0.0029723134656224255,
          -0.006559285764928097,
          -0.09380258124557278,
          0.3043694920550961,
          -0.12349109710298474,
          -0.12349109710298474,
          0.44834738645485234,
          0.44834738645485234,
          -0.1721309108727478,
          -0.2748993013886541,
          -0.31128349912907566,
          0.365286389546734
        ]
      ],
      "biases": [
        0.08931238314949924,
        0.1646076729085126,
        0.06711589837475156,
        0.008483086861849795,
        -0.16773907705071323,
        -0.16128346082941364,
        -0.06127252782033176,
        0.060776024405845126
      ],
      "mean": [
        0.26172607879924953,
        0.8209349593495935,
        0.4763133208255159,
        0.4526266416510319,
        0.5957317073170731,
        0.5452626641651032,
        0.1752958579881657,
        0.3431952662721893,
        0.2744082840236687,
        0.514792899408284,
        0.8607843137254902,
        0.38627450980392153,
        0.09375,
        0.09375,
        0.0703125,
        0.1015625,
        0.09375,
        0.0703125,
        0.227386474609375,
        0.11395263671875,
        0.8203003875968992,
        0.001913265306122449,
        0.5097891122615842,
        0.4972384839235438,
        0.227386474609375,
        0.227386474609375,
        0.11395263671875,
        0.11395263671875,
        0.07610629212622551,
        0.17662540095522103,
        0.09375,
        0.09375
      ],
      "scale": [
        0.117065503429113,
        0.16557532339980607,
        0.1469548574335208,
        0.13518780571113542,
        0.16239201428372776,
        0.17931179845812031,
        0.14265563818284033,
        0.23037061613101495,
        0.17405246487795997,
        0.21445112750793044,
        0.172560160068171,
        0.295109438904301,
        0.05,
        0.05,
        0.05,
        0.062009796353076345,
        0.05,
        0.05,
        0.05546305150324632,
        0.05,
        0.05,
        0.05,
        0.05,
        0.05,
        0.05546305150324632,
        0.05546305150324632,
        0.05,
        0.05,
        0.05,
        0.05,
        0.05,
        0.05
      ]
    },
    {
      "profile": "triangle",
      "labels": [
        "Crit Chance",
        "Crit Dmg",
        "Defense",
        "Health",
        "Offense",
        "Potency",
        "Speed",
        "Tenacity"
      ],
      "weights": [
        [
          0.19638642272667983,
          0.1848510143429364,
          -0.03678745841757748,
          -0.11944008311460494,
          -0.07561198772837785,
          0.48617162192389773,
          0.13093976562452186,
          0.01746875790973974,
          0.5461409927237859,
          0.2171049397442269,
          0.13387174181469075,
          0.09367773739513742,
          0.15799623110014233,
          0.4420525743465285,
          0.8023830441525731,
          -0.23720586985580752,
          -0.02076907261577225,
          -0.004933051175446218,
          0.25143703751140917,
          -0.01337256667149241,
          -0.21567760774781436,
          0.07520197503280578,
          -0.06040974097048273,
          0.19064743029546924,
          0.25143703751140917,
          0.25143703751140917,
          -0.01337256667149241,
          -0.01337256667149241,
          -0.08737950717218008,
          -0.23265780251192714,
          0.4420525743465285,
          -0.02076907261577225
        ],
        [
          0.1491436651891022,
          -0.10819622213024797,
          -0.0037679187914905995,
          -0.07812246996788505,
          -0.2545630009597917,
          0.30720733277528167,
          0.12152770712841761,
          0.008345087330524954,
          0.3853687240208481,
          0.23103510449783013,
          -0.23685258597983083,
          -0.16062405882026123,
          0.11874956243428969,
          0.3482150670269274,
          0.9950218969454828,
          0.29461490567165594,
          0.09509811196127847,
          -0.024148672768179492,
          0.05114289071816421,
          0.29985905765333876,
          -0.24754902092132583,
          0.045508277527565644,
          -0.049363573863191415,
          0.10636805793387563,
          0.05114289071816421,
          0.05114289071816421,
          0.29985905765333876,
          0.29985905765333876,
          -0.09730627362493963,
          -0.15452856958045272,
          0.3482150670269274,
          0.09509811196127847
        ],
        [
          0.0026066636582964264,
          -0.29555474613004223,
          0.029030284954424803,
          -0.12200620256782768,
          0.4073796289388288,
          -0.2991737152650926,
          -0.24490366261928104,
          -0.06763787238849177,
          0.06901479141392645,
          -0.07278645405040937,
          0.24187409216503403,
          0.0786822608752605,
          -0.08298677697198983,
          -0.2611837836447774,
          -0.34660271917055246,
          -0.153152135920722,
          -0.3134997684299214,
          -0.01782638054829502,
          -0.1754188902736993,
          -0.5372560080883765,
          0.2397034608725924,
          -0.10845819371685485,
          -0.0025316667774739014,
          -0.04081985754383994,
          -0.1754188902736993,
          -0.1754188902736993,
          -0.5372560080883765,
          -0.5372560080883765,
          0.22224641062568645,
          0.2533251747067623,
          -0.2611837836447774,
          -0.3134997684299214
        ],
        [
          -0.4302745445859192,
          0.6232563898884341,
          0.07986766974638712,
          0.22215000034276197,
          0.15753094658390823,
          -0.22864605397166562,
          -0.14950765440338015,
          0.16116512905593,
          -1.1293373668780535,
          -0.14987455013613618,
          0.3598398092148787,
          -0.5797110633590078,
          -0.1563498945152842,
          -0.1086096856732737,
          -0.1931878687591303,
          -0.6345152200718521,
          0.5022084939324405,
          0.2813997372918033,
          -0.04915303932298729,
          0.04969507655851042,
          0.22359114999942506,
          -0.10478725342995161,
          0.16497724866837887,
          -0.11050566650110058,
          -0.04915303932298729,
          -0.04915303932298729,
          0.04969507655851042,
          0.04969507655851042,
          0.26463921507555743,
          0.31537063886828604,
          -0.1086096856732737,
          0.5022084939324405
        ],
        [
          0.12155997300841423,
          0.025786395635445474,
          -0.06267064436899766,
          -0.17154213042069943,
          -0.30094630870821215,
          0.46327461081169546,
          0.08701596812193813,
          -0.08572194103751998,
          0.4085544565219082,
          0.2618252580255634,
          -0.18991209353703176,
          0.025590337802711798,
          0.14948714058515086,
          0.38871717586545296,
          0.9143887532362118,
          0.15957962682073845,
          0.04212527132517072,
          -0.026354970471294564,
          0.13069699864258455,
          0.028365086643763027,
          -0.45845328159848203,
          0.055117233074805726,
          -0.04083590352278711,
          0.25848098307167033,
          0.13069699864258455,
          0.13069699864258455,
          0.028365086643763027,
          0.028365086643763027,
          0.15579843828019702,
          0.2016895440654362,
          0.38871717586545296,
          0.04212527132517072
        ],
        [
          -0.09044197331712692,
          -0.24490301914030907,
          -0.07507738818707574,
          0.2720187637811379,
          -0.07122785000082561,
          -0.6248672271137508,
          0.0037959913367120787,
          0.2038338561071728,
          -0.29973640837451265,
          -0.4160926374935555,
          0.05222852537579227,
          0.07534473454316513,
          -0.11470654086669324,
          -0.19995824916681476,
          -0.22996642471915016,
          -0.27550552604637796,
          -0.24451637656464428,
          -0.6597374595320379,
          -0.190705864468739,
          -0.0887439704975601,
          0.3635254343098809,
          -0.031626999775422736,
          -0.07689349882735735,
          -0.4653430428491867,
          -0.190705864468739,
          -0.190705864468739,
          -0.0887439704975601,
          -0.0887439704975601,
          -0.3454764770116365,
          -0.5805686589856096,
          -0.19995824916681476,
          -0.24451637656464428
        ],
        [
          0.19112651271200343,
          0.30856732668463105,
          -0.002936461584463855,
          -0.15298835089521828,
          0.07877491193164196,
          0.5538997867945641,
          0.2850971312045145,
          0.035518282740036204,
          -0.1343659928292976,
          -0.150250180518638,
          -0.26460767066977414,
          0.19627565570212457,
          0.2607583220230173,
          -0.383908500342179,
          -1.614191960888402,
          0.7589165128438353,
          -0.011685470408750644,
          -0.011335442128427577,
          0.28307429960052033,
          0.3660735659696998,
          -0.37273712839924905,
          0.15218993965339503,
          -0.02272749346949587,
          0.1137495559237251,
          0.28307429960052033,
          0.28307429960052033,
          0.3660735659696998,
          0.3660735659696998,
          0.0736463935056015,
          0.2301706341484997,
          -0.383908500342179,
          -0.011685470408750644
        ],
        [
          -0.1401067193914494,
          -0.49380713915084856,
          0.07234191664879343,
          0.1499304728423357,
          0.05866365994282837,
          -0.6578663559549304,
          -0.2339652463934428,
          -0.27297129971739165,
          0.15436080340139613,
          0.07903851993111839,
          -0.09644181838375919,
          0.27076439586086953,
          -0.3329480437886326,
          -0.22532459841186317,
          -0.3278447207970334,
          0.08726770655852999,
          -0.048961189199800755,
          0.46293623933187766,
          -0.3010734324072527,
          -0.10462024156788294,
          0.46759699348497247,
          -0.0831449783663429,
          0.08778462876240978,
          -0.05257746033061332,
          -0.3010734324072527,
          -0.3010734324072527,
          -0.10462024156788294,
          -0.10462024156788294,
          -0.18616819967828618,
          -0.03280096071099441,
          -0.22532459841186317,
          -0.048961189199800755
        ]
      ],
      "biases": [
        -0.2466024594749703,
        -0.1154665989673618,
        -0.17949939052427785,
        0.9687091263380565,
        -0.13199858994821645,
        -0.2255553845053766,
        -0.2617839042832915,
        0.1921972013654386
      ],
      "mean": [
        0.8663322739977795,
        0.610784801725568,
        0.8641114982578395,
        0.8531990657426197,
        0.7601128256180519,
        0.7049431404832103,
        0.9088274362999635,
        0.7449583383649321,
        0.78021978021978,
        0.9099142615626131,
        0.4993197278911564,
        0.4354541816726688,
        0.06760204081632654,
        0.13010204081632654,
        0.16071428571428573,
        0.07397959183673469,
        0.09566326530612244,
        0.0663265306122449,
        0.37485052614795916,
        0.2054717394770408,
        0.7245755012053893,
        0.05895980841316121,
        0.48564943478968053,
        0.4855865140529867,
        0.37485052614795916,
        0.37485052614795916,
        0.2054717394770408,
        0.2054717394770408,
        0.11972458905437171,
        0.22211232503102302,
        0.13010204081632654,
        0.09566326530612244
      ],
      "scale": [
        0.179894481071406,
        0.12038872662439976,
        0.17498500474949746,
        0.21314871571241042,
        0.0954571583543816,
        0.18173802266826095,
        0.2448329863767285,
        0.24516933650283737,
        0.14667990943077733,
        0.1526678016458069,
        0.14937593033934493,
        0.09029852797644003,
        0.05,
        0.05,
        0.06681531047810607,
        0.05,
        0.05,
        0.05,
        0.05799492914783188,
        0.05,
        0.05,
        0.05,
        0.05,
        0.05,
        0.05799492914783188,
        0.05799492914783188,
        0.05,
        0.05,
        0.05,
        0.05,
        0.05,
        0.05
      ]
    },
    {
      "profile": "arrow",
      "labels": [
        "Crit Chance",
        "Crit Dmg",
        "Defense",
        "Health",
        "Offense",
        "Potency",
        "Speed",
        "Tenacity"
      ],
      "weights": [
        [
          0,
          0.04381448837514328,
          -2.0277728872052494e-17,
          0,
          -0.014403927909503917,
          0,
          0,
          -1.3518485914701704e-17,
          0,
          0,
          -8.111091548820997e-17,
          0,
          0,
          -2.703697182940341e-17,
          0,
          0,
          -0.0011358131937178443,
          -0.006665486174151172,
          0,
          0,
          0,
          0,
          0,
          0,
          0,
          -0.023559957335574075,
          -0.0056501490477892935,
          0,
          -0.008238615827901129,
          -0.0025199059256134576,
          0,
          0,
          0,
          0,
          0,
          0,
          0,
          0.05672320358914599,
          0,
          0,
          0.07323347832264206,
          0,
          0,
          -0.03651207364595275,
          0,
          0,
          0.05476811046892917,
          0,
          0,
          -0.04437177270807172,
          0,
          0,
          0.0061962215978479986,
          0.0028164643626584114,
          0,
          -0.03425870034851271,
          -0.0038348863514535403,
          0,
          0.05361727336457046,
          0.03142004042994188,
          0,
          -0.04707273280430094,
          -0.06997615275519489,
          0,
          0.04270216116854034,
          -0.03682398400927665,
          0,
          0.05205661442581801,
          0.024897130730104942,
          0,
          0.08973576047736395,
          0.04459005787556116,
          0,
          0.03651207364595282,
          0,
          0,
          -0.03651207364595284,
          0,
          0,
          -0.030426728038293913,
          0,
          0,
          -0.025048436001287762,
          0,
          0,
          -0.013224083422453358,
          0,
          0,
          0.008919392833927266,
          -0.016663715435377733,
          0,
          0.0323459639402498,
          0.008997020766343157,
          0,
          0.038351539843544204,
          0.017549865718461437,
          0,
          0.014864195693688714,
          -0.028777076503481082,
          0,
          0.06462039904603682,
          0.009958749480266246,
          0,
          0.07222038759694759,
          0.06362990492548103,
          0,
          0.03809722716482428,
          0.03876286931397215,
          0,
          -0.021907244187571652,
          0,
          0,
          -0.07323347832264211,
          0,
          0,
          -0.018256036822976485,
          0,
          0.0004614463555867676,
          -0.01774101797915941,
          0,
          0.01630829956936177,
          0.009016400340543086,
          0.003379757235190007,
          0.001640486171035034,
          0.04580521784290401,
          0.0005977892701425014,
          0.004919956358651137,
          0.06518468367302377,
          0.07423697242524187,
          -0.030452086843258896,
          0.09305575755683394,
          0.02646863351272866,
          0.0032251126218051126,
          0.0032631344211400074,
          0.02868235794033961,
          -0.00028189788055278935,
          -0.22497687688698526,
          0.02511195411458832,
          0,
          -0.003290899763662307,
          0.03720947235339195,
          0,
          0.041932562272834324,
          0.03945867433237951,
          0,
          -0.021907244187571652,
          0,
          0,
          0,
          0,
          0,
          -0.06943218005206156,
          0,
          0.011161990480845044,
          -0.03711045917071874,
          0,
          0.02197133147066404,
          8.111091548820997e-17,
          0.017299803144117422,
          0.02054016956447759,
          -0.005532283752589337,
          0,
          0.04364993256023411,
          0.06006607251513613,
          0.053044626169259215,
          -0.062227721982586706,
          0.2153608242964631,
          0.020970649808995594,
          0.05073808645992752,
          0.17399720719591305,
          0.07701277275733895,
          -0.00021128177620497203,
          0.02510050687432264,
          0.026664088602764004,
          0,
          -0.029778831701196582,
          0.009856038352833893,
          0,
          0.037545020876725524,
          0.02038103042114289,
          0,
          0,
          0,
          0,
          -0.054768110468929286,
          0,
          0,
          -0.023792002945818378,
          0,
          0.019945711092685035,
          -0.01380226350203239,
          -0.016663715435377893,
          0.0309069601902623,
          0,
          -0.003332743087075562,
          -0.0021084303529796903,
          -0.022508104113042944,
          -0.00763038323702042,
          -0.0038380147036925346,
          0.07592862443020933,
          0.05209363694101691,
          0.0061213098967822805,
          0.17464457433975752,
          0.012576110754078948,
          0.03337491533889782,
          0.2185260745588835,
          0.10604739382789223,
          -0.0004998848209687704,
          0.2604682717549672,
          0.03044262103082968,
          0,
          0.20235097071777203,
          0.04849111735466896,
          0,
          0.031847804154453395,
          0.02075598211560668,
          0,
          -0.043814488375143304,
          0,
          0,
          -0.08528420964452997,
          0,
          0,
          -0.008147708161300043,
          -0.00666548617415114,
          0.030325273327073604,
          0.008116953833648773,
          -0.009998229261226708,
          -0.0026870429155547147,
          0,
          0,
          -0.03321744737325933,
          -0.01669444414565645,
          -0.0056501490477892935,
          -0.02653816980957528,
          -0.00960124670449228,
          -0.013442227737643706,
          -0.18029288475736355,
          0.2811845530016435,
          0.03854969372790599,
          0.04788829617825544,
          0.17656174612763614,
          0.06594338031909992,
          -0.002164543776505249,
          0.2814517517912811,
          0.04086434296608156,
          0,
          0.038485639388380864,
          0.04428105389916811,
          0,
          0.05101794460563591,
          0.04998460376542555,
          0,
          -0.016915395583528166,
          0,
          0,
          0.013441596462114286,
          0,
          0,
          -0.009535310353697946,
          -0.007789092581791045,
          0.01707759778766618,
          0.015312050499820117,
          0.0069600229544636944,
          -0.0008345116474258629,
          0,
          0,
          0.006711471384992517,
          0,
          0,
          0.021991526254610694,
          0.03700480594568543,
          0.05331743068656632,
          0.02953588082673505,
          0.3427897329449544,
          0.04855533367854817,
          0.05581427846583906,
          0.21949348532419227,
          0.040070409368127065,
          -0.00021128177620497203,
          0.3114367861817851,
          0.037895822365016145,
          0,
          0.1403108168989243,
          0.06059530565877697,
          0,
          0.08909250937055557,
          0.08356001818981941,
          0,
          -0.009356937071744125,
          0,
          0,
          -0.0274318531436431,
          0,
          0,
          -0.011899825059383572,
          -0.0036377504465916035,
          0.015940046428062907,
          0.012760042083183433,
          0,
          -0.0028461511142985904,
          0,
          0,
          -0.00043375210776371644,
          0,
          0,
          0.03489806014076709,
          0.04836067375843949,
          0.046012445757483034,
          -0.05393550436807724,
          0.05574263177215698,
          0.048038738617211335,
          0.01595633453972636,
          -0.1443142617143854,
          0.07073125161035683,
          -0.000373454012461454,
          0.11183216449807296,
          0.007324167219033487,
          0,
          0.08723837391090072,
          0.07256834684814523,
          0,
          0.03389721835907747,
          0.026333154067442365,
          0,
          0.04381448837514324,
          0,
          0,
          -0.008798441749879798,
          0,
          0,
          -0.01380226350203238,
          -0.003332743087075514,
          0.013194334980021635,
          0.008116953833648773,
          -0.002154529469570536,
          0.011421819419963519,
          0,
          0,
          -0.002311812946813009,
          0,
          0,
          -0.00005853223017256111,
          0.07796406269171423,
          0.017262385105014592,
          -0.0003800413915175136,
          0.04170962764854087,
          0.046098222366989974,
          -0.003545631898748023,
          0.05018526586196494,
          0.023392474737002948,
          -0.0007035195232829288,
          -0.05730616407637129,
          -0.06995082218198312,
          0,
          0.07489236228105534,
          0.06199289493082012,
          0,
          -0.036328389355000865,
          -0.011764910083488792,
          0,
          0,
          0,
          0,
          0.04381448837514318,
          0,
          0,
          0.020292384584121432,
          0,
          0.012844876360901428,
          0.02435086150094593,
          0.0012252277656195963,
          0.01109077724558281,
          0,
          0,
          -0.0006089710666814631,
          0,
          0,
          -0.00041065519650721095,
          0.03923925093049378,
          0.007500296741616965,
          -0.0008618211966247477,
          -0.021412803262844428,
          0.001820590694941254,
          0.002236777355264181,
          -0.05446610646979082,
          -0.05203057301946314,
          0.0027300808921971076,
          -0.07201718595314534,
          -0.0718385022597566,
          0,
          0.01859938157811781,
          0.0012514954907678032,
          0,
          -0.02375998554706605,
          -0.0029338389136854192,
          0,
          0,
          0,
          0,
          2.703697182940341e-17,
          0,
          0,
          -0.0030550144964859444,
          0,
          0,
          -0.007332034791566336,
          -0.00333274308707557,
          0,
          -0.0043230164096631956,
          -0.0052977505460133365,
          0,
          0,
          0,
          0,
          0,
          0,
          0,
          0,
          0,
          0,
          -0.013912036788047045,
          -0.004708457539824398,
          0,
          0,
          -0.003120687813598911,
          0,
          0,
          0,
          0,
          4.055545774410499e-17,
          -0.005554571811792588,
          0.001949877923331191,
          0.016588827970022427,
          0.09524289675610131,
          0.03485727526466479,
          0.002713115547305976,
          -0.04718931792197792,
          -0.06719654394772202,
          0.03604881876748852,
          0.008596403876662405,
          0.026898372322612475
        ],
        [
          0,
          -0.02927516141121269,
          -7.769261765300029e-18,
          0,
          0.03698459380310326,
          0,
          0,
          -5.179507843533354e-18,
          0,
          0,
          -3.1077047061200115e-17,
          0,
          0,
          -1.0359015687066707e-17,
          0,
          0,
          0.03384046421289788,
          0.011948846097288881,
          0,
          0,
          0,
          0,
          0,
          0,
          0,
          -0.016841814283994484,
          -0.0041875297744058855,
          0,
          -0.006477529336250599,
          -0.002026709444058632,
          0,
          0,
          0,
          0,
          0,
          0,
          0,
          -0.03508874994749947,
          0,
          0,
          -0.04893180265494507,
          0,
          0,
          0.024395967842677273,
          0,
          0,
          -0.03659395176401589,
          0,
          0,
          0.05306952866740051,
          0,
          0,
          0.020696733505879892,
          0.009407606139036427,
          0,
          -0.020850359279326446,
          -0.002527456486579191,
          0,
          0.038693344797993384,
          0.03283285498852559,
          0,
          -0.031607082224437054,
          -0.036241108319668015,
          0,
          -0.01424789921738599,
          -0.025060625340274,
          0,
          0.052107020498328875,
          0.051467620543310645,
          0,
          0.06307178906785472,
          0.03134062395961141,
          0,
          -0.024395967842677255,
          0,
          0,
          0.024395967842677262,
          0,
          0,
          0.02032997320223108,
          0,
          0,
          0.009458593817557098,
          0,
          0,
          0.033619629625832,
          0,
          0,
          0.0520119302984181,
          0.029872115243222308,
          0,
          0.030772388697875262,
          0.02595917146353371,
          0,
          0.03127286376638912,
          0.029266811668158272,
          0,
          0.01514407238911604,
          -0.01616077102492508,
          0,
          0.02279167856536849,
          0.00894934114264579,
          0,
          0.049454380114338344,
          0.05008994365602203,
          0,
          0.06036692312681943,
          0.027191226368698796,
          0,
          0.014637580705606343,
          0,
          0,
          0.04893180265494504,
          0,
          0,
          0.012197983921338586,
          0,
          -0.02718210113203734,
          0.03292596893677493,
          0,
          -0.03661713493479435,
          0.0001135288579358752,
          0.011289127366843654,
          -0.011814058342763235,
          0.03328434999966623,
          0.026166677155364946,
          0.0035118547338869517,
          0.05038145362547506,
          0.06393203252131581,
          -0.020642383207569285,
          -0.060155095301907394,
          0.018215111246765257,
          0.0027542894138738263,
          0.25528974951757744,
          -0.03555838213444354,
          0.00034124497993897105,
          0.30249587720363397,
          0.01929357515240474,
          0,
          0.015642873641405885,
          0.024346175915398827,
          0,
          0.03427444467053683,
          0.04034993497595617,
          0,
          0.014637580705606343,
          0,
          0,
          0,
          0,
          0,
          0.06288141317805145,
          0,
          -0.03321364059046811,
          0.05187183272680857,
          0,
          -0.040269222977059045,
          3.1077047061200115e-17,
          -0.013129628197168161,
          -0.004243888370148082,
          -0.003414558023640126,
          0,
          0.03448657626673342,
          0.07059334924661272,
          -0.0009143172481561801,
          -0.041621960356593476,
          -0.24555144993105382,
          0.014575633793180299,
          0.03871057324051247,
          0.14633752809846942,
          -0.12432395840616607,
          -0.0002809463002758562,
          0.13278465356017072,
          0.018478943487718457,
          0,
          -0.08929078916897222,
          0.006177900881518398,
          0,
          0.03263433382941308,
          0.03128190362502138,
          0,
          0,
          0,
          0,
          0.036593951764015836,
          0,
          0,
          0.05005367857327347,
          0,
          -0.03905908994198392,
          0.03915210766073506,
          0.029872115243222242,
          -0.04816008240724504,
          0,
          0.005974423048644449,
          -0.0031647643954300806,
          -0.016304979698053317,
          -0.0053666797439855425,
          0.10686443338468474,
          0.05474108511175705,
          0.04629421330615118,
          -0.2146804728784274,
          -0.2053424258123907,
          0.0076814357229774465,
          0.06786047786305169,
          0.11711516481789457,
          -0.20351977950685424,
          -0.00047479245090159826,
          -0.07767925357294647,
          0.019110523022126957,
          0,
          -0.11942557155133875,
          0.029560593992981415,
          0,
          0.017251585784679703,
          0.027287582786783872,
          0,
          0.029275161411212686,
          0,
          0,
          0.06983780251822497,
          0,
          0,
          0.033016843793670064,
          0.011948846097288883,
          -0.04725315978364592,
          0.004531801679317361,
          0.017923269145933358,
          -0.002612190400777748,
          0,
          0,
          -0.03219278181390683,
          -0.011443873170452359,
          -0.0041875297744058855,
          0.10621339124701676,
          -0.010960736456614141,
          0.004807915072186932,
          -0.06556454542685013,
          -0.22947089314625882,
          0.024931837328779533,
          0.04859414476208922,
          0.2453702702693764,
          -0.1200063240648466,
          -0.0016236734703054304,
          -0.023051344262824763,
          0.026252580060746943,
          0,
          -0.07795482482636096,
          0.02734770252181022,
          0,
          0.03383068744487024,
          0.04173624035870775,
          0,
          0.011240675169104026,
          0,
          0,
          0.025407364699679844,
          0,
          0,
          0.018913064815814423,
          0.021414225303413314,
          -0.030845140124349624,
          -0.026860631120412988,
          -0.012209377782005917,
          -0.0002793045997784102,
          0,
          0,
          -0.0015184165591555386,
          0,
          0,
          0.07680700712510262,
          0.041079496228672616,
          0.0422189523484908,
          -0.1952195751816929,
          -0.32557350828350234,
          0.03544752504850119,
          0.08863569424045585,
          0.11503394382482832,
          -0.010746700909934476,
          -0.0002809463002758562,
          -0.0676825044133174,
          0.0248922315163533,
          0,
          -0.11039438162136059,
          0.040167714554128674,
          0,
          0.062371715654891496,
          0.06734340541621454,
          0,
          0.011116469084350305,
          0,
          0,
          0.04250751164580853,
          0,
          0,
          0.0263805438261553,
          0.030615401186671824,
          -0.03692862577296955,
          -0.02238385926701087,
          0,
          -0.0037195053513531437,
          0,
          0,
          -0.000530777320766099,
          0,
          0,
          0.024667438144803544,
          0.04736830941706154,
          0.03644689725811676,
          -0.0356635670009355,
          -0.11415055482917799,
          0.0331851215263546,
          0.015020882381130212,
          0.3895310325743815,
          -0.08790189048039966,
          0.00013254139966669608,
          -0.038515106055371465,
          0.004432016902056626,
          0,
          0.02783803056326143,
          0.06719200642275455,
          0,
          0.02433018381625796,
          0.029005404842803815,
          0,
          -0.029275161411212704,
          0,
          0,
          0.0157724768484212,
          0,
          0,
          0.03915210766073506,
          0.005974423048644467,
          -0.03439261780658346,
          0.004531801679317361,
          0.008199262585490908,
          -0.03657569178915712,
          0,
          0,
          0.00003642327385106699,
          0,
          0,
          -0.000057282949216207586,
          0.05595975328293277,
          0.04181331410844905,
          0.0001704853612917631,
          0.035606466370044935,
          0.03822675168013903,
          -0.0031139515961425158,
          0.04240993909520137,
          0.02743855180814332,
          -0.0029587212000122373,
          -0.0720139050782849,
          -0.04933074288825652,
          0,
          0.052892227730309334,
          0.044271132812705734,
          0,
          -0.02290360261407061,
          0.002221317930660354,
          0,
          0,
          0,
          0,
          -0.029275161411212707,
          0,
          0,
          0.011329504198293195,
          0,
          -0.03457756703306409,
          0.013595405037951955,
          0.0194883899523346,
          -0.033414136627312574,
          0,
          0,
          -0.0042202336817057625,
          0,
          0,
          -0.00023662911339192077,
          0.027579749084458063,
          0.012745432542224914,
          0.0002757952203305156,
          -0.015029190314984718,
          -0.000029015340174633307,
          -0.01507640688220766,
          -0.034703107881651415,
          -0.02955448819691512,
          -0.008183761826952197,
          -0.048336565871979646,
          -0.0501112439266487,
          0,
          0.0370953968519031,
          0.015174421887776884,
          0,
          -0.002260799561493326,
          0.007606100954960938,
          0,
          0,
          0,
          0,
          1.0359015687066707e-17,
          0,
          0,
          0.005476554461257409,
          0,
          0,
          0.01314373070701776,
          0.005974423048644441,
          0,
          0.00984678226184981,
          0.010450233167667099,
          0,
          0,
          0,
          0,
          0,
          0,
          0,
          0,
          0,
          0,
          -0.009536560975376937,
          -0.0034896081453382375,
          0,
          0,
          -0.002453609597064614,
          0,
          0,
          0,
          0,
          1.5538523530600057e-17,
          0.00995737174774075,
          -0.007255975645131132,
          0.00781327758756943,
          0.030187107693811402,
          0.012225693776567507,
          0.002292341143613429,
          0.1382576474491817,
          0.13935292604636357,
          0.04119146977644813,
          0.011169797891505398,
          0.017735447455891593
        ],
        [
          0,
          -0.0006997119182535625,
          6.2788540000797095e-18,
          0,
          -0.034340883450546436,
          0,
          0,
          4.185902666719808e-18,
          0,
          0,
          2.5115416000318838e-17,
          0,
          0,
          8.371805333439616e-18,
          0,
          0,
          0.022325945009570206,
          0.007772716015819545,
          0,
          0,
          0,
          0,
          0,
          0,
          0,
          -0.028185978511894826,
          -0.00737314649546969,
          0,
          -0.012286073014923092,
          -0.004051410065948535,
          0,
          0,
          0,
          0,
          0,
          0,
          0,
          -0.00879720063657374,
          0,
          0,
          -0.0011695295208921604,
          0,
          0,
          0.0005830932652112837,
          0,
          0,
          -0.0008746398978169501,
          0,
          0,
          0.02778687892833555,
          0,
          0,
          0.013775957392168824,
          0.006261798814622119,
          0,
          -0.001800947912642308,
          -0.00022478750096418572,
          0,
          -0.10985715714174923,
          -0.09092594642094756,
          0,
          -0.11716923132582203,
          -0.08623989665700169,
          0,
          -0.10573210909420044,
          -0.041984490797181584,
          0,
          -0.05922304809477396,
          -0.04361970862984323,
          0,
          -0.0597861294635015,
          -0.0297079665759983,
          0,
          -0.0005830932652113048,
          0,
          0,
          0.0005830932652113071,
          0,
          0,
          0.00048591105434273295,
          0,
          0,
          0.019021015195336898,
          0,
          0,
          0.028320642854339866,
          0,
          0,
          0.003220100580393679,
          0.019431790039548875,
          0,
          -0.04763610655176475,
          -0.022672602230016572,
          0,
          -0.10926970978542497,
          -0.10164577077059458,
          0,
          -0.027755772863208975,
          -0.05684287777937342,
          0,
          -0.03988117874082168,
          -0.017887483568573337,
          0,
          -0.0813102402403796,
          -0.07225080072214483,
          0,
          -0.056708023861030896,
          -0.02380445748843584,
          0,
          0.0003498559591267862,
          0,
          0,
          0.0011695295208921748,
          0,
          0,
          0.00029154663260567634,
          0,
          -0.027930757049174425,
          0.030089198061316016,
          0,
          -0.029321175141173328,
          0.03395328238946265,
          0.0075141585775465695,
          -0.007934345638083831,
          -0.0446834108253944,
          -0.0006658192836030397,
          -0.012464177917813039,
          -0.030564295115711574,
          -0.03583733544680648,
          -0.030765502086069083,
          -0.08477041612176589,
          0.02442868406464253,
          -0.004006962412355049,
          -0.10316671810195426,
          0.012570632384577335,
          0.0001449177515737754,
          -0.056234147090683896,
          0.029322312346429326,
          0,
          -0.0614993384003703,
          -0.055111053111943274,
          0,
          -0.017576790384913072,
          -0.008219775731057928,
          0,
          0.0003498559591267862,
          0,
          0,
          0,
          0,
          0,
          0.017974615132619966,
          0,
          -0.02901454599888815,
          0.02690071596327181,
          0,
          -0.029155558950065726,
          -2.5115416000318838e-17,
          0.02290294441353448,
          -0.011923623267559615,
          -0.00028750567706145624,
          0,
          -0.10519300414483321,
          -0.04907316331409694,
          -0.03283503851365802,
          -0.008941853757594554,
          -0.06951462077451633,
          0.019673196980852896,
          -0.07087821832520769,
          -0.06753637015231112,
          0.03247426224616835,
          0.0004959653220751789,
          -0.08930103707780025,
          0.028681801812199148,
          0,
          -0.048142855383819225,
          0.008118940111632644,
          0,
          0.04822970172947206,
          0.03900876376870362,
          0,
          0,
          0,
          0,
          0.0008746398978169864,
          0,
          0,
          0.023412809963494343,
          0,
          -0.029228324826131552,
          0.02561011436968919,
          0.019431790039548924,
          -0.022292673424522156,
          0,
          0.0038863580079097656,
          -0.02636059335843459,
          -0.027838115429849826,
          -0.00877550921845346,
          0.0165552265592177,
          -0.05639194878471881,
          -0.09352648902816141,
          0.08798325116797434,
          -0.05685146460607501,
          0.00951992454025373,
          0.05458109662729078,
          -0.06902020089500843,
          0.027523850100080308,
          0.00020237967887522728,
          -0.09624766692843215,
          0.026026513635945322,
          0,
          -0.12615987191354233,
          0.026359972927206272,
          0,
          0.052763303166650274,
          0.01441520826300391,
          0,
          0.0006997119182535724,
          0,
          0,
          0.02780512279572974,
          0,
          0,
          0.022619646510815297,
          0.007772716015819536,
          -0.028289680019222715,
          0.003135581864860327,
          0.011659074023729333,
          0.0015458252550889417,
          0,
          0,
          -0.047666774148706056,
          -0.017947584332792213,
          -0.00737314649546969,
          -0.007500702771676504,
          -0.05758986413964978,
          -0.03971989350920685,
          0.07617387102587062,
          -0.08628538724247564,
          0.017301543149495245,
          -0.023436950114218934,
          -0.09286203626141243,
          0.018083114296961703,
          -0.0016197238758942879,
          -0.06507918391682248,
          0.021984934804436116,
          0,
          0.0573526225689506,
          0.010833455462582646,
          0,
          -0.1043647522349405,
          -0.10423614492934301,
          0,
          0.007124403276021452,
          0,
          0,
          0.015106562623097983,
          0,
          0,
          0.03155856658244597,
          0.027031504541233323,
          -0.013254251489733353,
          0.01692766441958678,
          0.007694392917993943,
          -0.0007018781421518794,
          0,
          0,
          -0.014151741573266841,
          0,
          0,
          -0.04871303302679919,
          -0.06894362572373168,
          -0.06999887271611692,
          0.10351157507305032,
          0.05434189570072512,
          0.05748257070259888,
          -0.05757985693608982,
          -0.0721963630254701,
          0.03012392368582275,
          0.0004959653220751789,
          -0.04204916008850162,
          0.025643864242970042,
          0,
          0.059511699280714266,
          0.012921946290383901,
          0,
          -0.06577375408885393,
          -0.06572351831857665,
          0,
          0.006050084940223012,
          0,
          0,
          0.027585536619305077,
          0,
          0,
          0.030314635937934244,
          0.02015222637747797,
          -0.029090710913802942,
          0.01410638701632228,
          0,
          0.0013555216621294838,
          0,
          0,
          -0.0003534665210551452,
          0,
          0,
          -0.0991258148300337,
          -0.0598965711231294,
          -0.05634236237569105,
          0.00026563352946558627,
          0.01366488685634572,
          -0.06431646348231262,
          -0.04970375212012984,
          -0.10414693558013369,
          0.030554269082252557,
          0.0004618409125678846,
          -0.0962337921269529,
          0.003956549689472568,
          0,
          -0.07374117886326514,
          -0.06111166961975896,
          0,
          -0.02778732597886157,
          -0.022931068321293328,
          0,
          -0.0006997119182535495,
          0,
          0,
          0.010259985140881897,
          0,
          0,
          0.02561011436968919,
          0.00388635800790975,
          -0.02911409952822452,
          0.003135581864860327,
          0.00537626185150544,
          -0.028437279510903787,
          0,
          0,
          0.002362004843596312,
          0,
          0,
          -0.00003802108699235114,
          -0.06391122721935424,
          -0.028187645188592167,
          0.00008107019406060009,
          -0.1161238645020158,
          -0.12640518911076296,
          0.0011199111808577193,
          0.08554761178577208,
          0.03156620490715741,
          -0.0016996140993079355,
          0.03313125828843258,
          0.011178502485043783,
          0,
          -0.08159265962252628,
          -0.08597145965764362,
          0,
          -0.002889938087791994,
          -0.00995223516541293,
          0,
          0,
          0,
          0,
          -0.0006997119182535319,
          0,
          0,
          0.007838954662150968,
          0,
          -0.028939961310828672,
          0.009406745594581099,
          0.012890420429051959,
          -0.02909338206010589,
          0,
          0,
          -0.00031011707330338945,
          0,
          0,
          0.00043884017377996304,
          -0.026143010586878526,
          -0.00748558546804961,
          0.0007008746967268668,
          -0.09914146282516278,
          -0.042456028571181526,
          -0.010741224652629833,
          -0.04458872738704451,
          -0.04494080316594441,
          -0.00726611857385803,
          -0.061173855373129166,
          -0.04207192525966617,
          0,
          -0.0461142802592597,
          -0.0346778005580668,
          0,
          0.003878453584506834,
          -0.009115921107560989,
          0,
          0,
          0,
          0,
          -8.371805333439616e-18,
          0,
          0,
          0.003562494840583961,
          0,
          0,
          0.008549987617401522,
          0.003886358007909768,
          0,
          0.005119492879665545,
          0.006213400225939548,
          0,
          0,
          0,
          0,
          0,
          0,
          0,
          0,
          0,
          0,
          -0.014956320277326822,
          -0.006144288746224749,
          0,
          0,
          -0.004653815535955722,
          0,
          0,
          0,
          0,
          -1.2557708000159419e-17,
          0.00647726334651628,
          -0.0053222285941072365,
          -0.011144359288857082,
          -0.058612817498319855,
          -0.022266196169631186,
          -0.001367551455394475,
          -0.01064399404719963,
          -0.014676654472495509,
          -0.0596335101961099,
          -0.018896917696976087,
          -0.02952886011247301
        ],
        [
          0,
          -0.004335070163235827,
          1.4659695508590901e-18,
          0,
          0.0004383597251279687,
          0,
          0,
          9.773130339060616e-19,
          0,
          0,
          5.8638782034363606e-18,
          0,
          0,
          1.954626067812123e-18,
          0,
          0,
          -0.01642550739918792,
          -0.002336197586255709,
          0,
          0,
          0,
          0,
          0,
          0,
          0,
          -0.0267614279743859,
          -0.005774613270993949,
          0,
          -0.006810611768504524,
          -0.001968284212220658,
          0,
          0,
          0,
          0,
          0,
          0,
          0,
          -0.015340948315523337,
          0,
          0,
          -0.007245828459943193,
          0,
          0,
          0.003612558469363182,
          0,
          0,
          -0.005418837704044775,
          0,
          0,
          -0.006923789752430597,
          0,
          0,
          -0.013855690054306584,
          -0.006298040933775741,
          0,
          -0.006684395193607087,
          -0.0008047274122960808,
          0,
          0.0041327516279672915,
          0.012207389746991357,
          0,
          0.07699397324286737,
          0.10203096949782897,
          0,
          0.009546519704646185,
          0.0376383513374706,
          0,
          -0.05592864460552486,
          -0.03605596017386085,
          0,
          -0.04979137668066423,
          -0.024741533989169555,
          0,
          -0.003612558469363189,
          0,
          0,
          0.003612558469363189,
          0,
          0,
          0.003010465391135987,
          0,
          0,
          0.0012418602941117677,
          0,
          0,
          -0.013452691527239847,
          0,
          0,
          -0.021544369688917965,
          -0.005840493965639296,
          0,
          -0.04571966973627908,
          -0.019225458296569478,
          0,
          -0.022230804828459943,
          0.012802745740805902,
          0,
          -0.13636614318479498,
          0.057384622118069974,
          0,
          -0.10230609569398363,
          -0.07625215462662596,
          0,
          -0.04803280475418663,
          -0.05697984734954339,
          0,
          -0.0033658612631334538,
          -0.019200445173623785,
          0,
          0.002167535081617914,
          0,
          0,
          0.007245828459943194,
          0,
          0,
          0.0018062792346815997,
          0,
          0.008642984696948686,
          -0.01247083945372538,
          0,
          0.008455422245224914,
          -0.009314380436986857,
          -0.007557649120530884,
          0.00008478272297515918,
          -0.04028786415104866,
          -0.007848765687481187,
          0.0076082598507442745,
          -0.0760195687845943,
          -0.06862103346527883,
          0.03389394404169774,
          -0.08719498449921341,
          -0.1084581980396939,
          -0.005262068401419662,
          -0.07744088029347276,
          0.0168157911353415,
          -0.00021391177601898202,
          0.0038675269589755665,
          -0.12126465577016461,
          0,
          -0.0772786102454692,
          0.005004794816041269,
          0,
          0.03882632154354743,
          -0.005230560776856834,
          0,
          0.002167535081617914,
          0,
          0,
          0,
          0,
          0,
          0.00027920301428220536,
          0,
          0.0088564353893912,
          -0.009699925585581129,
          0,
          0.007518022700286995,
          -5.8638782034363606e-18,
          -0.009065781791421756,
          -0.011765360172602041,
          -0.001049613788514293,
          0,
          -0.01848894894776988,
          0.008082762770160883,
          0.12931738691812553,
          0.09140735835180923,
          -0.00013499227526484004,
          -0.0027985256666571475,
          -0.03404640480254846,
          -0.046798563346828484,
          0.041413033211225796,
          0.00011814969587079008,
          0.10083988045649865,
          0.014678999065926604,
          0,
          0.06205530691858821,
          -0.013684998482745984,
          0,
          -0.02551966916055899,
          -0.021850109615966326,
          0,
          0,
          0,
          0,
          0.005418837704044783,
          0,
          0,
          -0.014721385004077842,
          0,
          0.008021779861865195,
          -0.012099098682511073,
          -0.00584049396563928,
          -0.00023225522403170828,
          0,
          -0.0011680987931278549,
          0.04406697078062062,
          -0.024098493215469103,
          -0.008804046231619629,
          0.03289124007706454,
          -0.10744790713251172,
          0.05729110912389707,
          0.035459890479315075,
          -0.06643972817715622,
          0.01788245000881384,
          -0.07247691092866174,
          -0.06874165626567372,
          0.03679037966547548,
          -0.00025993378221964063,
          0.05649584523046688,
          0.04121608046818653,
          0,
          -0.016128983037076182,
          -0.06096811164706925,
          0,
          0.025755996028162066,
          -0.006100219749394659,
          0,
          0.004335070163235828,
          0,
          0,
          0.007289569427065713,
          0,
          0,
          -0.015630720606976466,
          -0.0023361975862557106,
          0.005183238122397751,
          -0.006771523625655199,
          -0.0035042963793835737,
          -0.004264989323391556,
          0,
          0,
          0.05927972146361482,
          -0.02108591816729877,
          -0.005774613270993949,
          0.04517423017352191,
          0.15776447679027597,
          0.13536950585301388,
          0.04787303306397043,
          0.0942657135283858,
          0.03238837083598886,
          0.05018314081915924,
          0.0064478651309665775,
          0.023356500837213412,
          -0.0023283887920536018,
          -0.03524428468604327,
          0.03802976706520757,
          0,
          0.017631271432444737,
          0.029704819575192738,
          0,
          0.06914837379979406,
          0.07626270234834524,
          0,
          0.0036877428117976668,
          0,
          0,
          -0.02736164302634543,
          0,
          0,
          -0.011634552852234062,
          -0.00903385364883442,
          -0.0029950688921221587,
          -0.0016589459379799474,
          -0.000754066335445431,
          -0.00136933210763864,
          0,
          0,
          -0.007247699876507358,
          0,
          0,
          -0.05768511502786296,
          -0.0684082722827447,
          -0.06485153888030142,
          -0.08033980072106192,
          -0.07056549902592109,
          -0.15734165606710354,
          -0.009816054708526773,
          0.08265958785899957,
          0.009195051175308935,
          0.00011814969587079008,
          0.039526619949878106,
          0.03690054251883751,
          0,
          0.0015375674600193638,
          -0.04103462670373497,
          0,
          -0.05354295953811943,
          -0.05200118755572087,
          0,
          0.0036664499008430703,
          0,
          0,
          -0.006254357568603684,
          0,
          0,
          -0.011738959771804315,
          -0.013416981872445895,
          0.00781347639693575,
          -0.001382454948316623,
          0,
          -0.004987740533124081,
          0,
          0,
          0.00010228987526860228,
          0,
          0,
          0.06681572391865015,
          -0.055757311428583374,
          -0.052173311672705336,
          -0.055787055703273955,
          0.01546337093178187,
          0.011924847947840477,
          -0.015744842066778505,
          0.014035301287974524,
          -0.08492463595098303,
          -0.0003874639129258926,
          -0.018738195049891947,
          0.010312869076001535,
          0,
          0.0009126948385063376,
          -0.02942889990537933,
          0,
          -0.025554801294576632,
          -0.017059337847472256,
          0,
          -0.0043350701632358215,
          0,
          0,
          -0.0030837808138575074,
          0,
          0,
          -0.012099098682511076,
          -0.0011680987931278592,
          0.008545446478771675,
          -0.006771523625655199,
          -0.002940701193947792,
          0.006288623557080487,
          0,
          0,
          -0.0029981620242293403,
          0,
          0,
          0.00002417316088752057,
          -0.05877639011848697,
          -0.019297517614814463,
          -0.00019880147945503635,
          0.08167131422129316,
          0.06761010237278131,
          -0.005049475051803795,
          -0.1007424231297595,
          -0.1382866462615765,
          -0.0006329370702233871,
          0.09249729576165125,
          0.09532062837913452,
          0,
          -0.013776887997703543,
          -0.013819522590730314,
          0,
          -0.014970093778358277,
          -0.013353645749874124,
          0,
          0,
          0,
          0,
          -0.004335070163235818,
          0,
          0,
          -0.01692880906413795,
          0,
          0.008758081027090496,
          -0.020314570876965598,
          -0.010498350314478683,
          0.008941488424303793,
          0,
          0,
          -0.0026899349728979117,
          0,
          0,
          -0.00010053309736257964,
          -0.021772549910469223,
          -0.004457899347281112,
          -0.0006563919726930974,
          0.06675103322946147,
          0.00830951272274979,
          0.0008919662080512031,
          -0.07031171752080773,
          -0.07113795194147773,
          0.0022276112363443573,
          0.029764610134581863,
          0.02420639639489479,
          0,
          -0.046502791616981204,
          -0.03654298711506547,
          0,
          -0.013001567096274235,
          -0.008421995984782,
          0,
          0,
          0,
          0,
          -1.954626067812123e-18,
          0,
          0,
          -0.0010707572270338694,
          0,
          0,
          -0.002569817344881277,
          -0.0011680987931278553,
          0,
          -0.007452265353840253,
          -0.0045554921357825184,
          0,
          0,
          0,
          0,
          0,
          0,
          0,
          0,
          0,
          0,
          -0.017571598472749004,
          -0.004812177725828292,
          0,
          0,
          -0.0025797771850395936,
          0,
          0,
          0,
          0,
          -2.9319391017181803e-18,
          -0.001946831321879761,
          0.0018667581491468013,
          -0.005105874304704561,
          -0.01920099554793395,
          -0.009257403559382791,
          -0.006144427777375398,
          -0.013311315160237487,
          -0.015352995699535353,
          -0.014044176386031691,
          -0.012755972806387262,
          -0.02300367821083998
        ],
        [
          0,
          -0.010654709514712032,
          4.272044973217137e-18,
          0,
          0.0007444177426100116,
          0,
          0,
          2.8480299821447603e-18,
          0,
          0,
          1.708817989286855e-17,
          0,
          0,
          5.6960599642895206e-18,
          0,
          0,
          -0.021517279678833025,
          -0.004924546985085808,
          0,
          0,
          0,
          0,
          0,
          0,
          0,
          -0.0028848688956114557,
          -0.0006579842969596212,
          0,
          -0.0008746964785932144,
          -0.0002595646894662777,
          0,
          0,
          0,
          0,
          0,
          0,
          0,
          -0.011634946121539697,
          0,
          0,
          -0.017808753844136573,
          0,
          0,
          0.00887892459559336,
          0,
          0,
          -0.013318386893390044,
          0,
          0,
          -0.013509440581965418,
          0,
          0,
          -0.016100277995238554,
          -0.007318308179653922,
          0,
          -0.006760153324190342,
          -0.0008281733927730663,
          0,
          0.05912627013929166,
          0.04387725372451085,
          0,
          0.008019472378024067,
          -0.014550602355181231,
          0,
          0.034214445635708524,
          -0.01004022300498196,
          0,
          0.05239239402311527,
          0.0323257890798005,
          0,
          0.06844987701311396,
          0.03401301734507177,
          0,
          -0.008878924595593377,
          0,
          0,
          0.008878924595593377,
          0,
          0,
          0.007399103829661115,
          0,
          0,
          0.0036405185454769957,
          0,
          0,
          -0.01862990348677668,
          0,
          0,
          0.00724322861300234,
          -0.012311367462714554,
          0,
          0.042014722863711426,
          0.015635447298660152,
          0,
          0.05093458843907645,
          0.029990815954704236,
          0,
          0.024558930244362984,
          -0.009063419357012374,
          0,
          0.04696089910957992,
          0.014545450219508224,
          0,
          0.06797398899759131,
          0.06268264469634727,
          0,
          0.03880247616832206,
          0.021883807875081505,
          0,
          0.005327354757356017,
          0,
          0,
          0.017808753844136594,
          0,
          0,
          0.004439462297796705,
          0,
          0.019143511405743555,
          -0.015002895286394752,
          0,
          0.016211246817298026,
          -0.015991472173946242,
          -0.008781969815584705,
          0.004204346760193288,
          0.045782665785712134,
          0.001808734691938741,
          0.005600858514152884,
          0.052372906516428966,
          0.054893115419997286,
          -0.007912450623876657,
          0.0016784522681236324,
          0.008898667728047305,
          0.0034798355709021616,
          -0.23464277119008375,
          0.02045817929131447,
          -0.00015112140420532995,
          -0.18973034726223442,
          0.012136630220422124,
          0,
          0.020076517739110157,
          0.037064495104953354,
          0,
          0.030721109670861477,
          0.026960980912042954,
          0,
          0.005327354757356017,
          0,
          0,
          0,
          0,
          0,
          0.00248438352620121,
          0,
          0.01739722451623138,
          -0.015219751281260092,
          0,
          0.014816230364805855,
          -1.708817989286855e-17,
          -0.011823327661209969,
          0.008695918077069938,
          -0.001066457213558661,
          0,
          0.0559621687496234,
          0.04402946104936468,
          0.016990581375742272,
          -0.0323989147251327,
          -0.06702497237746574,
          0.006457211681227088,
          0.05343214847900942,
          -0.2714713002523192,
          0.07691415654223581,
          -0.00006980308085857997,
          -0.19283593296379667,
          0.004569963504849763,
          0,
          -0.0443669805375058,
          0.0035323336976717523,
          0,
          0.01336245173908376,
          0.004455355879386037,
          0,
          0,
          0,
          0,
          0.013318386893390086,
          0,
          0,
          -0.016716129941034847,
          0,
          0.01540339456900137,
          -0.01956590187125011,
          -0.012311367462714535,
          0.006280308100295178,
          0,
          -0.0024622734925429093,
          0.004649574340422815,
          -0.0026807138381783123,
          -0.0009424026036564315,
          0.0472275225579562,
          0.06604359899652601,
          0.05140983523704983,
          0.21364477030005669,
          -0.047232389719733474,
          0.004289394322603962,
          0.03068197130923754,
          -0.27487819608047626,
          0.09819532736780281,
          -0.00010780655038186631,
          -0.21457043100730586,
          0.005769681633409325,
          0,
          0.004040356706130297,
          0.020753220659246212,
          0,
          0.004675190119614594,
          0.006128328408018873,
          0,
          0.010654709514712033,
          0,
          0,
          0.00007386693108829297,
          0,
          0,
          -0.021128572837553993,
          -0.004924546985085813,
          0.011528230911204264,
          -0.006409965786986529,
          -0.007386820477628723,
          -0.0015318067787362143,
          0,
          0,
          -0.005182575737389593,
          -0.0021559551634504487,
          -0.0006579842969596212,
          0.048255599022495335,
          -0.009321253560830932,
          -0.008751573860692367,
          0.21626585530605402,
          -0.043212161189886564,
          0.01171085250410626,
          0.034628598672534185,
          -0.35614032825354663,
          0.058685935399436666,
          -0.0003209855492392057,
          -0.2257686688547747,
          0.00995988521312982,
          0,
          -0.04747311193295445,
          0.01367358093484298,
          0,
          0.0535083187829927,
          0.052457489301666306,
          0,
          -0.00009043623332676142,
          0,
          0,
          -0.024482950127890278,
          0,
          0,
          -0.017667089933273327,
          -0.016006617241947275,
          0.0024931300223094053,
          -0.0033454936301877815,
          -0.0015206789228126283,
          -0.0003797272262567921,
          0,
          0,
          0.010432770389061468,
          0,
          0,
          0.06492911356777922,
          0.04996516539231208,
          0.052836869255508796,
          0.19806878995188085,
          -0.1139551512254683,
          0.01993692485310507,
          0.07143502473705572,
          -0.2802568838704248,
          0.0186822200334478,
          -0.00006980308085857997,
          -0.23495064725237094,
          0.008637037240636393,
          0,
          -0.05259733462641987,
          0.02647474881624042,
          0,
          0.06991191841831229,
          0.06689309114896362,
          0,
          0.0004406487725690009,
          0,
          0,
          -0.01593166687881859,
          0,
          0,
          -0.018503889142243466,
          -0.018352864030780482,
          0.01615488753003036,
          -0.0027879113584898195,
          0,
          -0.0018982446087458015,
          0,
          0,
          0.0002774560188775486,
          0,
          0,
          0.04326108459721859,
          0.049922090380994925,
          0.04591138009579815,
          -0.029576451479763885,
          -0.04823637430872199,
          0.04638411164234758,
          0.029678639498979423,
          -0.2574140140969192,
          0.05907941773317304,
          -0.0003259646800208189,
          -0.06386373909583036,
          0.0014829844568655728,
          0,
          0.05079241220179137,
          0.061213737315714126,
          0,
          0.028817947221333857,
          0.019237735115284007,
          0,
          -0.010654709514712018,
          0,
          0,
          -0.006500402020313207,
          0,
          0,
          -0.019565901871250117,
          -0.0024622734925429175,
          0.017021323872612338,
          -0.006409965786986529,
          -0.004411538597184785,
          0.01591656772764549,
          0,
          0,
          -0.0020818289984049225,
          0,
          0,
          0.000039394169747910284,
          0.06628167007718253,
          0.018564880015182247,
          -0.00011499437181235302,
          0.0534633406142792,
          0.059733328441311115,
          -0.0015924816944022924,
          0.012530190192350668,
          0.004717857725277696,
          0.0008997165302044322,
          -0.048436997486328646,
          -0.04608410510836527,
          0,
          0.0671182444562433,
          0.062227898484376966,
          0,
          -0.012291625152921344,
          0.0002951398270736159,
          0,
          0,
          0,
          0,
          -0.010654709514712,
          0,
          0,
          -0.01602491446746623,
          0,
          0.017055895211151088,
          -0.0192298973609595,
          -0.013193508412769495,
          0.017468175741985528,
          0,
          0,
          -0.0006830136969161375,
          0,
          0,
          -0.00010915917324624576,
          0.029931455263663226,
          0.0040613507758694755,
          -0.0005602102458281724,
          0.011358751802331025,
          0.010266799451716086,
          0.006154151086645457,
          -0.010230437386746713,
          -0.012576874025068697,
          0.004393701252663845,
          -0.021435649297367652,
          -0.027233364735104716,
          0,
          0.03135380635906045,
          0.01625122346577016,
          0,
          -0.011049136594372325,
          0.0040653643190792675,
          0,
          0,
          0,
          0,
          -5.6960599642895206e-18,
          0,
          0,
          -0.002257084034831001,
          0,
          0,
          -0.005417001683594375,
          -0.0024622734925429067,
          0,
          -0.006083439753276571,
          -0.005227473380395903,
          0,
          0,
          0,
          0,
          0,
          0,
          0,
          0,
          0,
          0,
          -0.0017966293028753694,
          -0.0005483202474663493,
          0,
          0,
          -0.0003313244237095521,
          0,
          0,
          0,
          0,
          -8.544089946434275e-18,
          -0.004103789154238182,
          0.017580168131369995,
          0.013587509977874336,
          -0.0719649087604206,
          0.029099427694680605,
          0.0021398235204075798,
          -0.07245402643852339,
          -0.06500933109277279,
          0.04169178522454313,
          0.011891094528276625,
          0.020283551254455696
        ],
        [
          0,
          -0.0010692358342459865,
          7.137516539527818e-18,
          0,
          -0.006384783477942836,
          0,
          0,
          4.758344359685211e-18,
          0,
          0,
          2.855006615811127e-17,
          0,
          0,
          9.516688719370422e-18,
          0,
          0,
          -0.007128312773650375,
          -0.0011947439480096416,
          0,
          0,
          0,
          0,
          0,
          0,
          0,
          0.1350633165179912,
          0.03223966850811268,
          0,
          0.046631097381331525,
          0.01458411555718975,
          0,
          0,
          0,
          0,
          0,
          0,
          0,
          -0.002651011259433201,
          0,
          0,
          -0.0017871681763940964,
          0,
          0,
          0.0008910298618716347,
          0,
          0,
          -0.0013365447928074838,
          0,
          0,
          -0.004064344538553091,
          0,
          0,
          -0.005814094430839599,
          -0.002642770195836265,
          0,
          -0.0058136271166645045,
          -0.0007200891869155427,
          0,
          -0.0666049618191128,
          -0.051788124320092374,
          0,
          0.003908685995135365,
          0.042135132067423094,
          0,
          0.06243913153223445,
          0.03367071080517025,
          0,
          -0.03336429020857874,
          -0.02258014495321572,
          0,
          -0.026137222808381193,
          -0.012987690431688514,
          0,
          -0.0008910298618716601,
          0,
          0,
          0.0008910298618716616,
          0,
          0,
          0.0007425248848930246,
          0,
          0,
          0.002671489674141294,
          0,
          0,
          -0.0052177955808325885,
          0,
          0,
          -0.011222467787502825,
          -0.0029868598700241705,
          0,
          -0.027304899112871095,
          -0.012243780572146746,
          0,
          -0.07208799561726954,
          -0.07106201119933969,
          0,
          -0.0300921027763134,
          -0.02147085767772213,
          0,
          0.04728795663853317,
          0.013863977652551165,
          0,
          -0.026246171862943462,
          -0.027895330861223377,
          0,
          -0.03003451426852237,
          -0.010477512642896642,
          0,
          0.0005346179171229993,
          0,
          0,
          0.001787168176394121,
          0,
          0,
          0.00044551493093585476,
          0,
          0.0008464295762635115,
          -0.004066385903056722,
          0,
          0.00146432695157791,
          -0.0007904730630579646,
          -0.0031713242350034894,
          -0.0015292586772550337,
          -0.02262990043647013,
          -0.0045236230048744715,
          -0.008671337008782946,
          -0.034447953270684964,
          -0.03296745169836573,
          0.0647655885386269,
          0.04558519928436163,
          -0.0014112776834206496,
          -0.0032311645613161077,
          0.03004710650298538,
          -0.06421774071332505,
          -0.00014344076756172191,
          0.03258691186500183,
          -0.01240356653108932,
          0,
          0.03524868499266246,
          -0.022105108115511373,
          0,
          -0.06800595520489244,
          -0.04846942418556854,
          0,
          0.0005346179171229993,
          0,
          0,
          0,
          0,
          0,
          -0.0012918918928137941,
          0,
          0.0014924780251770325,
          -0.0050592996320968486,
          0,
          0.0010281473231346177,
          -2.855006615811127e-17,
          -0.0007290171062450449,
          -0.007455478830090207,
          -0.0009409607846366087,
          0,
          -0.05579034370285113,
          -0.017769632949088104,
          -0.03140663089725851,
          0.021549240856349513,
          0.021978380405354714,
          -0.07160788734070665,
          -0.037141690994091564,
          -0.0425086678065558,
          -0.13338097080777475,
          0.00006612622447209062,
          -0.06422251173916643,
          -0.13696442804306083,
          0,
          0.027378284764626757,
          -0.030960954180451715,
          0,
          -0.009146434436891806,
          -0.030202231603131076,
          0,
          0,
          0,
          0,
          0.0013365447928075198,
          0,
          0,
          -0.00680800315923817,
          0,
          0.0012718262523210946,
          -0.00561134027106993,
          -0.002986859870024117,
          -0.003206359673385257,
          0,
          -0.0005973719740048283,
          0.009192163001838815,
          0.12819758791462627,
          0.043552218818096684,
          -0.07748366341163557,
          0.014430275082287773,
          0.04051529697598991,
          -0.10005025258816716,
          0.04416487772791492,
          -0.05161740437363162,
          -0.04491237642178615,
          0.007841431571208495,
          -0.054276509670874766,
          0.0017281433121401092,
          -0.01453582346948517,
          -0.11596981067779198,
          0,
          -0.02557432404412914,
          0.011088391577251507,
          0,
          0.037063984627025356,
          0.05614330113819229,
          0,
          0.0010692358342459986,
          0,
          0,
          -0.0009900009178287373,
          0,
          0,
          -0.00698797561187923,
          -0.0011947439480096509,
          -0.00021433979065059444,
          -0.002699925652817469,
          -0.0017921159220144706,
          -0.003114863038126036,
          0,
          0,
          0.10605619961528184,
          0.09620406870021506,
          0.03223966850811268,
          -0.04203470294251681,
          0.04528758662563219,
          0.04963198044966687,
          -0.09369086685878378,
          0.024792768366116814,
          -0.07555755467789439,
          0.014768748713327198,
          0.02957112472321137,
          -0.07697269016302016,
          0.011313468046221825,
          0.014404189294068958,
          -0.11506172840482601,
          0,
          0.03365259014158547,
          -0.005089758400276892,
          0,
          0.04969870886535453,
          0.034709475796660096,
          0,
          0.0011228636414447085,
          0,
          0,
          -0.009742464788146343,
          0,
          0,
          -0.002725731568332295,
          -0.0029919310106238453,
          -0.004032122823974335,
          0.002686537841634299,
          0.001221153564379227,
          -0.0010646975115821706,
          0,
          0,
          -0.005270540282734004,
          0,
          0,
          -0.03634790636745271,
          0.016654506225208542,
          0.006128470321856567,
          -0.08410453769646936,
          0.044969307744409145,
          -0.009491732393743185,
          -0.02940597624786152,
          -0.048591314198981043,
          -0.13565235011087765,
          0.00006612622447209062,
          -0.04638219371632084,
          -0.12758570198986333,
          0,
          0.053922241356220244,
          0.004173966821725808,
          0,
          -0.009983790774701731,
          -0.00921917035595991,
          0,
          0.0013332945991633188,
          0,
          0,
          -0.003465150992744379,
          0,
          0,
          -0.0036547529836948645,
          -0.005898046928072481,
          0.0009151830098711125,
          0.002238781534695248,
          0,
          -0.0038669098036259726,
          0,
          0,
          -0.00007214372699602346,
          0,
          0,
          -0.06598504270062358,
          -0.02551767383519625,
          -0.02704336673423524,
          0.046854045926985194,
          0.10183635639707117,
          0.004364218304303789,
          -0.03621012243699735,
          0.02397671262346816,
          -0.02806219785415883,
          -0.00024847883956206055,
          0.08260240516033947,
          -0.03174661375979366,
          0,
          0.019169505647406455,
          0.017076569964880568,
          0,
          -0.014325948663600842,
          -0.010209597021619774,
          0,
          -0.0010692358342459715,
          0,
          0,
          -0.0015770620113726257,
          0,
          0,
          -0.005611340271069932,
          -0.0005973719740048443,
          0.001348231701637049,
          -0.002699925652817469,
          -0.0013304658353552059,
          -0.00044175241202748587,
          0,
          0,
          -0.0019895640714939706,
          0,
          0,
          0.000012405742073003276,
          -0.032949876532513626,
          -0.012524046242908548,
          -0.00016866710510520246,
          -0.0761175742111975,
          -0.07796840028694027,
          -0.0038698677277000933,
          -0.0015757078637692321,
          0.02542508488421003,
          -0.0009149526074553986,
          -0.00894423796164867,
          -0.057722290673077443,
          0,
          -0.04571607254016148,
          -0.051017957838541975,
          0,
          -0.012603588724656258,
          -0.00993042206019128,
          0,
          0,
          0,
          0,
          -0.0010692358342459522,
          0,
          0,
          -0.006749814132043503,
          0,
          0.0014808053968450165,
          -0.008099776958452294,
          -0.004501790070358733,
          0.0015501960175977054,
          0,
          0,
          -0.002219360478065298,
          0,
          0,
          -0.00008031823428791046,
          -0.011429167579885876,
          -0.0030945581326019176,
          -0.00041984408000289076,
          -0.06431759969840051,
          -0.02181811353465222,
          -0.001409090628574285,
          0.04130852024589513,
          0.059904123096070155,
          0.0004174406318125937,
          0.024399188131202513,
          0.008032489922392872,
          0,
          -0.029854864600264597,
          -0.02489461639370494,
          0,
          -0.0069586793763551915,
          -0.0058493363023893455,
          0,
          0,
          0,
          0,
          -9.516688719370422e-18,
          0,
          0,
          -0.0005475909761710888,
          0,
          0,
          -0.001314218342810581,
          -0.0005973719740048254,
          0,
          -0.0021720788856182936,
          -0.0015846805583767962,
          0,
          0,
          0,
          0,
          0,
          0,
          0,
          0,
          0,
          0,
          0.08017005725017931,
          0.02686639042342722,
          0,
          0,
          0.017663294462625552,
          0,
          0,
          0,
          0,
          -1.4275033079055636e-17,
          -0.0009956199566747137,
          -0.007099168249692066,
          -0.014684946710906858,
          0.00017223676275594286,
          -0.03211779693457526,
          -0.0025870793790073857,
          0.018919744401583272,
          0.04567191599961497,
          -0.0056471068929753255,
          -0.013291944183937776,
          -0.01975714096738748
        ],
        [
          0,
          0.007444855866079602,
          7.879348607940564e-18,
          0,
          0.02469493285302082,
          0,
          0,
          5.2528990719603745e-18,
          0,
          0,
          3.151739443176226e-17,
          0,
          0,
          1.0505798143920749e-17,
          0,
          0,
          -0.013036980685059157,
          0.00008553703045937324,
          0,
          0,
          0,
          0,
          0,
          0,
          0,
          -0.008661461467519376,
          -0.0019807101540933528,
          0,
          -0.002646735329698062,
          -0.0007827680338533175,
          0,
          0,
          0,
          0,
          0,
          0,
          0,
          -0.002908121248605704,
          0,
          0,
          0.012443662151559981,
          0,
          0,
          -0.006204046555066353,
          0,
          0,
          0.009306069832599503,
          0,
          0,
          0.0034288896997233262,
          0,
          0,
          -0.013131071418564302,
          -0.005968668826620224,
          0,
          0.09275169794179289,
          0.010950665389635437,
          0,
          0.025818833947716946,
          0.00022011091063801351,
          0,
          0.07218947222661821,
          0.049361600810908894,
          0,
          0.054825463470063715,
          0.1004643349663726,
          0,
          0.042148921235855605,
          0.027987872602328295,
          0,
          -0.049374867723334236,
          -0.024534569024318987,
          0,
          0.006204046555066335,
          0,
          0,
          -0.0062040465550663336,
          0,
          0,
          -0.005170038795888636,
          0,
          0,
          -0.01489554490497245,
          0,
          0,
          -0.010458309182298162,
          0,
          0,
          -0.014758120903320555,
          0.00021384257614835543,
          0,
          0.06069625230280266,
          0.0225723382346212,
          0,
          0.037706208746382364,
          0.04958535757631549,
          0,
          0.037621960438769045,
          0.03537377801070258,
          0,
          -0.09055677227839024,
          0.0731106013129541,
          0,
          0.011027083553217376,
          0.02416244053153308,
          0,
          -0.005243206836455218,
          -0.01985594963871195,
          0,
          -0.003722427933039792,
          0,
          0,
          -0.012443662151559941,
          0,
          0,
          -0.003102023277533137,
          0,
          0.016402051302883434,
          -0.0184879730896127,
          0,
          0.016458872100513184,
          -0.014284437785301963,
          -0.007162402591944235,
          0.011173756214388982,
          0.01915172063229654,
          -0.006460455920524331,
          -0.0025189490461963093,
          0.026301121528054652,
          -0.009173039199548436,
          0.019612759233710243,
          0.01880436771375862,
          0.007474524197616391,
          0.007955659085701167,
          0.028461247572170403,
          0.006214369839084208,
          0.00033710022406488455,
          0.03468463021946957,
          0.01131428191079007,
          0,
          0.015858399916832813,
          -0.016696962012105042,
          0,
          0.04082023106296256,
          0.027555728210789977,
          0,
          -0.003722427933039792,
          0,
          0,
          0,
          0,
          0,
          -0.009117888365588961,
          0,
          0.015627985970863918,
          -0.002414008517053711,
          0,
          0.01742784276995296,
          -3.151739443176226e-17,
          -0.011514677239680199,
          0.008833194511856027,
          0.014983315439301158,
          0,
          0.02882135318104897,
          -0.09511903167078023,
          -0.07132934534559741,
          0.09354765230428912,
          0.06884683873304595,
          -0.013193701488155097,
          0.052632668208546715,
          0.008815212113261296,
          -0.009969634778449145,
          0.0003693087485911172,
          -0.021703942360782057,
          0.010543590058178415,
          0,
          0.04709764829732724,
          0.004000201688979192,
          0,
          0.04531961824054019,
          0.03418776360651558,
          0,
          0,
          0,
          0,
          -0.009306069832599463,
          0,
          0,
          -0.01730412299956996,
          0,
          0.016896666006252815,
          -0.005736129712698547,
          0.00021384257614841902,
          0.029659831768142797,
          0,
          0.000042768515229678164,
          -0.0024915199378872177,
          -0.008051604007469255,
          -0.002824360619020729,
          -0.07122808965778551,
          -0.009389825644729954,
          -0.08187466187355052,
          0.031421021493371816,
          0.05323710274348712,
          -0.016260557767425018,
          0.01218753971367716,
          -0.00895986837407048,
          0.01725862385035993,
          0.0002556577685250073,
          0.013339178445264064,
          -0.0033310019311231687,
          0,
          -0.025308296390087442,
          -0.060754279787826715,
          0,
          -0.0017685184453003495,
          -0.021398013660879737,
          0,
          -0.007444855866079584,
          0,
          0,
          0.00871621782712795,
          0,
          0,
          -0.0029820538361486925,
          0.00008553703045936221,
          0.02226142868866461,
          -0.007935097291241835,
          0.00012830554568904457,
          0.010001363425007395,
          0,
          0,
          -0.0028887189757863304,
          -0.006455848692771008,
          -0.0019807101540933528,
          -0.11405239197683122,
          -0.029770403713758945,
          -0.06683984435682708,
          0.027286849685111355,
          0.008577362488971644,
          -0.08493854232868119,
          -0.10507417532429575,
          -0.03572510838890449,
          0.010602957676028719,
          -0.000382928433536062,
          0.022927181365726707,
          -0.06162287939609006,
          0,
          -0.08000627888172407,
          -0.11767427153170974,
          0,
          -0.06487186136411768,
          -0.06495698319627705,
          0,
          0.00804800617144818,
          0,
          0,
          -0.01853862980650989,
          0,
          0,
          -0.0022349051233801023,
          -0.004605323864666556,
          0.025367176775382104,
          -0.004787502112509544,
          -0.0021761373238679757,
          0.0035014145986070294,
          0,
          0,
          0.0184936374402977,
          0,
          0,
          0.03910968439332316,
          0.056970372997625966,
          0.04137714515852106,
          -0.0036769235409110737,
          0.044155114522320904,
          0.012959696250687559,
          -0.05812280183149604,
          -0.028189307906486695,
          0.012277949907683213,
          0.0003693087485911172,
          0.023312956935297044,
          -0.04503747304986577,
          0,
          -0.09674802522985135,
          -0.11265571096962786,
          0,
          -0.051612612856175445,
          -0.05110300656964252,
          0,
          -0.0027912454362614475,
          0,
          0,
          0.003088394419616835,
          0,
          0,
          -0.0030160778632096854,
          -0.009840860089626164,
          0.017827335772196813,
          -0.003989585093757951,
          0,
          0.012880602602804037,
          0,
          0,
          0.0011437883869115017,
          0,
          0,
          -0.008276892493946001,
          0.047032394712905885,
          0.05706908905497661,
          -0.013851322534689472,
          0.052392166374519294,
          0.00913883251732548,
          0.0926494391660368,
          0.06923490268407266,
          0.0019046745391835564,
          0.0007480144351355775,
          0.05153425087428804,
          -0.004075809530554523,
          0,
          -0.002178253093782513,
          -0.0452422876177247,
          0,
          0.0016280553176847823,
          -0.010379877162310187,
          0,
          0.007444855866079612,
          0,
          0,
          0.00011290888020648169,
          0,
          0,
          -0.005736129712698554,
          0.000042768515229660187,
          0.015901607594288575,
          -0.007935097291241835,
          -0.0017521089842793378,
          0.022473412954384896,
          0,
          0,
          0.0055777099448396355,
          0,
          0,
          0.0001022234743397593,
          0.003744549346467665,
          0.0006024741525246392,
          0.0006117420185948637,
          0.009304257280956298,
          -0.006765469108715573,
          0.012219955774178004,
          0.0029180992882732407,
          -0.07135715373885833,
          0.004418352404449383,
          0.08853198626970947,
          0.03836046853417155,
          0,
          0.0038524455114269857,
          0.031272464977559845,
          0,
          0.12557986500670773,
          0.059230580476226806,
          0,
          0,
          0,
          0,
          0.00744485586607963,
          0,
          0,
          -0.019837743228104405,
          0,
          0.015801991767466866,
          -0.02380529187372536,
          -0.00891451157622362,
          0.015607204701445684,
          0,
          0,
          0.008656336656413967,
          0,
          0,
          0.0007593757406730692,
          -0.02159042074140067,
          -0.00558847354438536,
          0.0015686473906165387,
          -0.014501243449242536,
          -0.019600402877994767,
          0.013068320289517564,
          0.05934216172207106,
          0.03208369228647851,
          0.00383221990261334,
          0.07769090225502238,
          0.079367294521478,
          0,
          0.08194168513630912,
          0.09788632866885286,
          0,
          0.05943763207852878,
          0.024860430717184107,
          0,
          0,
          0,
          0,
          -1.0505798143920749e-17,
          0,
          0,
          0.00003920447229387652,
          0,
          0,
          0.00009409073350533567,
          0.000042768515229681105,
          0,
          0.0005293088919539093,
          0.00028336346611780203,
          0,
          0,
          0,
          0,
          0,
          0,
          0,
          0,
          0,
          0,
          -0.005379873910642502,
          -0.0016505917950777956,
          0,
          0,
          -0.001002551261249265,
          0,
          0,
          0,
          0,
          -1.575869721588113e-17,
          0.00007128085871612964,
          0.0031685949969165726,
          -0.0016166360942778675,
          0.01637755510771918,
          -0.001416750945106106,
          -0.002984205891864251,
          -0.0019119709711175206,
          -0.008910282822803954,
          0.010467840974065456,
          0.022425606423596842,
          0.02414207079938747
        ],
        [
          0,
          -0.005225455399562822,
          1.0132569657282311e-18,
          0,
          -0.0077327092858689665,
          0,
          0,
          6.755046438188195e-19,
          0,
          0,
          4.0530278629129245e-18,
          0,
          0,
          1.351009287637639e-18,
          0,
          0,
          0.003077484507980311,
          -0.0046861244500654734,
          0,
          0,
          0,
          0,
          0,
          0,
          0,
          -0.028167808049011103,
          -0.006615535468400892,
          0,
          -0.009296835625460869,
          -0.002975473186028865,
          0,
          0,
          0,
          0,
          0,
          0,
          0,
          0.019697773940029174,
          0,
          0,
          -0.008734057817891031,
          0,
          0,
          0.004354546166302344,
          0,
          0,
          -0.006531819249453514,
          0,
          0,
          -0.015415949714438605,
          0,
          0,
          0.008232221403052381,
          0.0037419188195692435,
          0,
          -0.016583514766849446,
          -0.002010545058653808,
          0,
          -0.0049263549166776765,
          0.022156420940432478,
          0,
          0.034737442511915066,
          0.013480057710884825,
          0,
          -0.08374771319960672,
          -0.057864073957299145,
          0,
          -0.05018896727424037,
          -0.03442259919862443,
          0,
          -0.03616782988245178,
          -0.01797193915906896,
          0,
          -0.00435454616630235,
          0,
          0,
          0.004354546166302352,
          0,
          0,
          0.0036287884719186153,
          0,
          0,
          0.003910503379636157,
          0,
          0,
          -0.0009574892805711958,
          0,
          0,
